digraph Tree {
node [shape=box] ;
0 [label="Price <= -0.779\nmse = 0.997\nsamples = 718\nvalue = 0.005"] ;
1 [label="Price <= -0.955\nmse = 1.31\nsamples = 61\nvalue = -2.069"] ;
0 -> 1 [labeldistance=2.5, labelangle=45, headlabel="True"] ;
2 [label="Kms_driven <= 0.189\nmse = 0.932\nsamples = 29\nvalue = -2.914"] ;
1 -> 2 ;
3 [label="Price <= -1.072\nmse = 0.394\nsamples = 6\nvalue = -1.61"] ;
2 -> 3 ;
4 [label="Kms_driven <= -0.467\nmse = 0.194\nsamples = 4\nvalue = -1.267"] ;
3 -> 4 ;
5 [label="mse = 0.0\nsamples = 1\nvalue = -0.532"] ;
4 -> 5 ;
6 [label="mse = 0.019\nsamples = 3\nvalue = -1.512"] ;
4 -> 6 ;
7 [label="location <= 0.055\nmse = 0.086\nsamples = 2\nvalue = -2.296"] ;
3 -> 7 ;
8 [label="mse = 0.0\nsamples = 1\nvalue = -2.59"] ;
7 -> 8 ;
9 [label="mse = 0.0\nsamples = 1\nvalue = -2.002"] ;
7 -> 9 ;
10 [label="Price <= -1.103\nmse = 0.513\nsamples = 23\nvalue = -3.255"] ;
2 -> 10 ;
11 [label="Kms_driven <= 2.877\nmse = 0.561\nsamples = 14\nvalue = -3.556"] ;
10 -> 11 ;
12 [label="mse = 0.551\nsamples = 13\nvalue = -3.494"] ;
11 -> 12 ;
13 [label="mse = -0.0\nsamples = 1\nvalue = -4.354"] ;
11 -> 13 ;
14 [label="Price <= -0.993\nmse = 0.077\nsamples = 9\nvalue = -2.786"] ;
10 -> 14 ;
15 [label="mse = 0.035\nsamples = 5\nvalue = -2.59"] ;
14 -> 15 ;
16 [label="mse = 0.022\nsamples = 4\nvalue = -3.031"] ;
14 -> 16 ;
17 [label="Kms_driven <= -0.272\nmse = 0.42\nsamples = 32\nvalue = -1.304"] ;
1 -> 17 ;
18 [label="Price <= -0.801\nmse = 0.055\nsamples = 5\nvalue = -0.708"] ;
17 -> 18 ;
19 [label="company <= -1.769\nmse = 0.016\nsamples = 4\nvalue = -0.606"] ;
18 -> 19 ;
20 [label="mse = 0.0\nsamples = 1\nvalue = -0.826"] ;
19 -> 20 ;
21 [label="mse = 0.0\nsamples = 3\nvalue = -0.532"] ;
19 -> 21 ;
22 [label="mse = 0.0\nsamples = 1\nvalue = -1.12"] ;
18 -> 22 ;
23 [label="label <= -0.361\nmse = 0.41\nsamples = 27\nvalue = -1.414"] ;
17 -> 23 ;
24 [label="company <= 0.565\nmse = 0.365\nsamples = 24\nvalue = -1.512"] ;
23 -> 24 ;
25 [label="mse = 0.271\nsamples = 19\nvalue = -1.631"] ;
24 -> 25 ;
26 [label="mse = 0.463\nsamples = 5\nvalue = -1.061"] ;
24 -> 26 ;
27 [label="location <= -0.841\nmse = 0.077\nsamples = 3\nvalue = -0.63"] ;
23 -> 27 ;
28 [label="mse = 0.0\nsamples = 1\nvalue = -0.238"] ;
27 -> 28 ;
29 [label="mse = 0.0\nsamples = 2\nvalue = -0.826"] ;
27 -> 29 ;
30 [label="Kms_driven <= 0.347\nmse = 0.531\nsamples = 657\nvalue = 0.198"] ;
0 -> 30 [labeldistance=2.5, labelangle=-45, headlabel="False"] ;
31 [label="Price <= -0.086\nmse = 0.355\nsamples = 496\nvalue = 0.401"] ;
30 -> 31 ;
32 [label="Kms_driven <= -0.618\nmse = 0.316\nsamples = 278\nvalue = 0.168"] ;
31 -> 32 ;
33 [label="Kms_driven <= -0.96\nmse = 0.23\nsamples = 97\nvalue = 0.501"] ;
32 -> 33 ;
34 [label="mse = 0.248\nsamples = 32\nvalue = 0.809"] ;
33 -> 34 ;
35 [label="mse = 0.152\nsamples = 65\nvalue = 0.35"] ;
33 -> 35 ;
36 [label="Price <= -0.436\nmse = 0.271\nsamples = 181\nvalue = -0.011"] ;
32 -> 36 ;
37 [label="mse = 0.339\nsamples = 78\nvalue = -0.231"] ;
36 -> 37 ;
38 [label="mse = 0.155\nsamples = 103\nvalue = 0.156"] ;
36 -> 38 ;
39 [label="Kms_driven <= -0.758\nmse = 0.247\nsamples = 218\nvalue = 0.698"] ;
31 -> 39 ;
40 [label="Price <= 0.129\nmse = 0.189\nsamples = 72\nvalue = 0.999"] ;
39 -> 40 ;
41 [label="mse = 0.194\nsamples = 21\nvalue = 0.798"] ;
40 -> 41 ;
42 [label="mse = 0.164\nsamples = 51\nvalue = 1.082"] ;
40 -> 42 ;
43 [label="company <= -1.676\nmse = 0.208\nsamples = 146\nvalue = 0.549"] ;
39 -> 43 ;
44 [label="mse = 0.346\nsamples = 2\nvalue = -0.826"] ;
43 -> 44 ;
45 [label="mse = 0.18\nsamples = 144\nvalue = 0.568"] ;
43 -> 45 ;
46 [label="Price <= -0.437\nmse = 0.557\nsamples = 161\nvalue = -0.428"] ;
30 -> 46 ;
47 [label="Kms_driven <= 0.86\nmse = 0.6\nsamples = 56\nvalue = -0.905"] ;
46 -> 47 ;
48 [label="Kms_driven <= 0.491\nmse = 0.271\nsamples = 27\nvalue = -0.565"] ;
47 -> 48 ;
49 [label="mse = 0.139\nsamples = 11\nvalue = -0.292"] ;
48 -> 49 ;
50 [label="mse = 0.275\nsamples = 16\nvalue = -0.753"] ;
48 -> 50 ;
51 [label="Kms_driven <= 2.831\nmse = 0.699\nsamples = 29\nvalue = -1.221"] ;
47 -> 51 ;
52 [label="mse = 0.582\nsamples = 28\nvalue = -1.152"] ;
51 -> 52 ;
53 [label="mse = -0.0\nsamples = 1\nvalue = -3.178"] ;
51 -> 53 ;
54 [label="label <= -0.361\nmse = 0.347\nsamples = 105\nvalue = -0.174"] ;
46 -> 54 ;
55 [label="Kms_driven <= 2.812\nmse = 0.47\nsamples = 41\nvalue = -0.554"] ;
54 -> 55 ;
56 [label="mse = 0.457\nsamples = 36\nvalue = -0.467"] ;
55 -> 56 ;
57 [label="mse = 0.118\nsamples = 5\nvalue = -1.179"] ;
55 -> 57 ;
58 [label="Price <= -0.145\nmse = 0.117\nsamples = 64\nvalue = 0.07"] ;
54 -> 58 ;
59 [label="mse = 0.101\nsamples = 30\nvalue = -0.13"] ;
58 -> 59 ;
60 [label="mse = 0.065\nsamples = 34\nvalue = 0.246"] ;
58 -> 60 ;
}